Wih1[[-2.01772261  0.21521282  0.48848045  1.16904783 -1.95815325  0.91021144
   1.00861371  1.73950982 -0.26521507  2.06321883]
 [ 2.00651765 -1.70734441  1.32111239  1.66861331 -1.39170384  0.02676728
  -0.33879876 -2.79365945  0.40617648  0.70763421]
 [ 1.72391987  0.3571431   0.75683457 -0.22677873 -0.91475439  1.46132135
   0.55801404 -0.70472652 -2.12542915  1.44618821]
 [ 0.15504085 -0.70049655  0.54362386 -0.16178983 -2.10667968  0.89368206
   1.79324162  0.31480411  0.84677166  1.51399088]
 [-0.93468177 -0.57143992  1.69963801  1.24238479  0.74543244  0.33974722
  -2.04147506 -1.11695528 -0.4997308  -0.91303277]
 [ 0.32486898 -0.25478402  0.4398272   0.53844136 -0.98422074  0.39676645
  -1.41691363  0.36134362  1.81498945 -2.23571134]
 [-2.06254339  0.21114306 -1.21566606 -0.14496054  1.10669005  0.8042677
   0.6886245   0.41366878 -0.74749529 -0.584162  ]
 [-0.36679971 -1.05708492 -0.58806318 -0.06132952 -0.17702834  0.1026352
   0.3505913  -3.00553465  0.38744789 -1.7598635 ]
 [ 0.54621947 -0.64526922  1.53000522  0.01329821  0.33308408 -0.77638477
   0.05342381 -1.73585892  0.07128278  1.12922251]
 [-0.50100732 -2.17721319  0.19954877 -0.35015038  1.27931058 -1.02989364
   1.27111208 -1.6582911  -1.16202962  0.37348467]
 [-0.55438709  0.93863738 -0.71748585 -0.77542585  0.17987177  0.28620213
  -0.06189395  1.07529569 -0.41572398  0.79874873]
 [-0.2926994   0.98768306 -0.05405722  0.12719917 -1.70317411  0.57603073
  -0.23326409 -0.59840453  0.77690953  1.55811441]
 [-0.94133198 -0.58698422  0.18411788 -1.29023027 -1.6427387  -0.0816712
  -0.22149099  1.06292903  0.98124737 -0.31086612]
 [-1.84900093 -0.21096995  0.95096201 -0.82535911 -0.27799132  0.25374603
  -0.03866182  0.76500535  1.80773413 -0.55417031]
 [-0.46747568  0.92870176 -0.68602359  1.29983318  1.28052759  0.01167557
   1.49655962 -0.50780612  0.37407237  0.61686456]
 [-1.24910235  0.85557371 -0.26333165 -1.43860924  1.45148993 -0.51022047
   1.77050114  1.19453275 -0.25567013 -2.13041091]
 [-0.88339174  0.03087547 -0.58367151 -0.78045684  2.99721622 -0.70926964
  -1.5388577  -0.73302096  0.88553971 -0.44384238]
 [ 0.63289815 -0.41501126 -0.9614017  -0.75237697 -0.71941352 -1.12203288
   0.33403778 -0.19406533 -1.96528852 -0.16075611]
 [-0.28804058  0.37304932  0.1860082   0.30497441 -2.24473643  1.71851182
   0.71013576  0.55203819  2.2083919  -0.16176048]
 [ 0.03623111 -0.09628873 -0.92068183  0.78776562  0.41294926  0.67052305
  -0.74641144  2.84975624 -0.76383996  1.0370661 ]
 [ 0.61296457  0.23601647  0.22193925  1.32060599  0.57472008  1.37325835
   3.4733963  -0.11224993  0.44746158  0.48381042]
 [ 0.08190493  0.19194268  0.83586657  0.9171018  -1.20541072 -0.99304438
   1.04960406  0.8632552  -0.65421796  0.30509034]
 [-0.3056142  -0.35766402 -1.03398979  0.07502703  0.35910812  0.27547365
  -1.66092229  1.79745507  0.48597506 -0.42082793]
 [ 0.12710045 -0.73002172 -1.27662015 -0.01971535  1.31236768  0.28681219
   1.56971109  0.18558514 -0.47035331 -0.26950902]
 [-0.73938131  0.03424632  1.47243536  0.11125059  1.10360837  0.12191511
  -0.53362709 -1.98977125 -0.51040876 -0.34050924]
 [-1.44745326 -1.49839568  2.2219615  -1.13200557 -1.49011135 -0.60323364
  -0.24062902 -0.56669217  0.22743136  0.45570734]
 [-0.20068774  2.13688493  1.68200576 -0.75887251 -1.01627147  2.63122153
  -1.96191049 -1.61011398  1.29310679  0.20012325]
 [-0.62978178 -0.10275421  0.15326922  0.07135863  1.01057935  0.95998985
   1.19085419  0.9329372  -1.54825068 -0.82149756]
 [-0.72969562 -0.65161544 -1.75243545 -0.74717522 -0.23579803 -2.1208241
  -0.18668216 -0.55366617 -0.16205549 -1.96378481]
 [-2.45548558  0.24463122 -0.21505566 -2.17519689 -1.94697022  0.48518842
   0.39623693 -1.12495637 -1.26743007 -0.28700316]
 [ 1.24237108  0.37241557  0.55737191  0.48199391  0.81132156  0.60443437
   0.23633347 -0.19475284  0.84008282 -0.35766956]]
Wh1h2[[ 0.1085462   0.1672934   1.06503189  1.39778757  0.34532529  0.72501743
  -0.03896396 -0.04428738 -0.79447216  0.51943618]
 [-0.41152835 -2.10159397  0.70741302 -0.34669492  1.69632208  1.24465001
   0.40389025  0.14793997 -0.7603392   0.38046458]
 [-1.63747215 -0.21040513 -0.27929184  1.34512162 -1.19523776  1.42443848
   1.50504827 -0.91027361 -0.66952306  0.29318771]
 [-1.6931113   0.30381152 -1.22325611 -1.25218391  0.50640184 -1.34418869
  -1.22239661 -0.35723791  0.7548995   0.20512849]
 [-1.39176857  0.33253998  0.00404093  0.14922218 -0.54490083 -0.60476065
   0.15644479  1.22200477  0.0268478  -1.03853917]
 [ 0.2926257   1.27874005 -0.23630033 -0.47203755 -0.82953346 -0.47727555
  -0.01885678 -0.67279851  0.05056131 -1.17184234]
 [ 2.15164447  1.14479935 -1.05715334  0.89286608 -0.4408493  -0.42927793
  -0.08575226  0.26449469 -0.74349594  1.49427736]
 [-1.01902699 -0.36584035 -0.22706936 -0.98499793  0.43429726  1.04094124
  -0.29093036  0.25692955 -0.16300273  0.30877438]
 [ 0.55449021  0.34061155  0.24109781 -0.55048472 -0.70863402 -0.52252495
   0.71070254 -0.86693168 -1.03585422 -1.37569904]
 [ 0.46794179  1.92750061  1.84926796 -1.02194369 -1.07393312  1.18536723
  -0.14617127  1.65267265  2.14532971 -0.40668312]]
Wh2h3[[-0.32371184  0.81140333 -0.14752807]
 [ 0.27014682  0.41782522 -0.46223816]
 [ 0.66389203 -0.14872362  0.96758264]
 [ 0.21926782  0.6801185  -0.67673177]
 [-1.34933817 -0.65085942  1.94578695]
 [-0.08420941 -2.50026369  0.74450493]
 [ 0.44092819 -0.85053635 -1.24250388]
 [-2.00873017  1.00621271  0.68064535]
 [ 0.03432439  0.01841661 -0.54457402]
 [ 0.62812734 -0.96751165  0.62238449]]
bh0[  1.19775668e-01   1.51673973e-01   1.23639274e+00  -1.21775568e+00
  -3.32173795e-01  -2.30477571e-01  -4.26784277e-01   3.63202304e-01
   5.35332784e-02   2.10278449e-04]
bh1[-0.20628485  0.237113   -0.01383038  0.12344559 -0.68535626  0.92125106
  0.92329806 -0.90620536 -0.18399219  0.4896557 ]
bh2[ 1.13870013 -0.75753099 -0.57350481]